<?xml version="1.0"?>
<opencv_storage>
<my_svm type_id="opencv-ml-svm">
  <svm_type>C_SVC</svm_type>
  <kernel><type>LINEAR</type></kernel>
  <C>1.0000000000000001e-01</C>
  <term_criteria><epsilon>1.0000000116860974e-07</epsilon>
    <iterations>100</iterations></term_criteria>
  <var_all>236</var_all>
  <var_count>236</var_count>
  <class_count>2</class_count>
  <class_labels type_id="opencv-matrix">
    <rows>1</rows>
    <cols>2</cols>
    <dt>i</dt>
    <data>
      -1 1</data></class_labels>
  <sv_total>1</sv_total>
  <support_vectors>
    <_>
      -5.16156433e-04 -3.96809401e-03 -1.91022948e-04 -1.15309609e-03
      -3.03860288e-04 9.17430792e-04 2.37104949e-03 4.83406388e-04
      8.42021604e-04 1.65657117e-03 -4.44918126e-03 5.12239174e-04
      -7.77068664e-04 2.28362251e-03 -4.39416268e-04 1.75381254e-03
      1.48093808e-04 1.11494528e-03 2.83933734e-03 -5.45298681e-03
      1.58759765e-03 -2.31474475e-03 -9.20062885e-04 -7.74413755e-04
      1.07128802e-03 1.19662285e-03 8.36369116e-03 3.34130088e-03
      -5.67230955e-03 -5.27606695e-04 -2.95380712e-04 -2.28613056e-03
      -9.88585642e-04 3.20648891e-03 -1.32501649e-03 -4.65481950e-04
      -4.38501884e-04 -1.00046990e-03 1.94828864e-03 -4.09912309e-06
      1.45045889e-03 2.35744796e-04 -3.28239007e-03 -3.37887369e-03
      6.49609929e-03 -1.02282313e-04 -2.35290010e-03 7.44618196e-03
      -2.98041455e-03 -2.72577628e-03 -8.97818070e-04 7.00175809e-03
      -2.07926030e-03 -5.63036650e-04 1.13463681e-03 -1.40117260e-03
      -2.42421473e-03 -2.59471266e-03 -3.56149802e-04 8.68976407e-04
      5.14630228e-03 -9.39553647e-05 -8.48956523e-04 -3.32490541e-03
      -2.53885839e-04 5.73482877e-03 -5.85236296e-04 1.45430851e-04
      2.66414881e-03 -1.66622063e-04 -6.98314048e-03 -6.56108663e-04
      -3.99049808e-04 3.88447545e-03 4.56649484e-03 4.64845769e-04
      -3.19640245e-03 -4.20704717e-03 1.63617393e-03 -2.44155934e-04
      3.23604769e-03 -1.45500374e-03 -9.07389331e-04 -3.49024381e-03
      -1.88909878e-03 2.14758818e-03 1.39809010e-04 1.64568133e-03
      -2.99874897e-04 2.97534862e-03 -1.04294042e-03 -3.00295791e-03
      -3.23914364e-03 2.19986564e-03 -2.27034371e-03 7.33043300e-04
      6.45871740e-04 -2.17233179e-03 6.64987322e-03 6.47542020e-03
      1.71393075e-03 -1.66017155e-03 -3.36277764e-03 -7.80119793e-04
      3.14674224e-03 2.66515580e-03 -4.90307948e-03 -3.46960430e-03
      2.00565066e-03 1.23384321e-04 -1.82709505e-03 -1.12423801e-03
      -2.36680172e-03 -2.50214664e-03 -2.29727681e-04 -1.25596451e-03
      -9.90504399e-04 3.58593464e-03 -1.91307440e-03 -1.76657096e-03
      -1.35688140e-04 -3.17295664e-04 -1.22086413e-03 -1.20261335e-03
      -1.90547004e-03 2.42938811e-04 1.06470980e-04 -1.73779007e-03
      2.35427381e-03 1.01008371e-03 1.48774197e-04 1.25520315e-03
      2.60331063e-03 -3.23858578e-03 -1.78940711e-03 3.91420879e-04
      2.57581269e-05 1.15120586e-03 6.36594952e-04 -2.67336873e-04
      -1.05171860e-03 -1.53018907e-03 3.35280388e-03 -1.01007300e-03
      2.93943100e-03 2.11354042e-03 1.43673026e-03 1.99789734e-04
      8.44851951e-04 -1.67092716e-03 2.59099575e-03 8.66649032e-04
      -1.56549085e-03 -8.37335770e-04 4.45779006e-04 -1.28788874e-03
      -3.21762636e-05 -2.73310393e-03 -2.17920588e-03 -3.91086680e-04
      -1.33470935e-03 1.36773684e-03 1.12867157e-03 9.23621177e-04
      -3.27686267e-03 3.10641970e-03 3.36408149e-03 1.04711515e-04
      6.68802415e-04 1.43766380e-03 -1.52022729e-03 -1.69202616e-03
      9.44673433e-04 5.12790750e-04 2.85719335e-03 -5.51243254e-04
      -2.97401077e-03 -1.91307440e-03 -1.76657096e-03 -1.35688140e-04
      -3.17295664e-04 -1.22086413e-03 -1.20261335e-03 -1.90547004e-03
      2.42938811e-04 1.06470980e-04 -1.73779007e-03 2.35427381e-03
      1.01008371e-03 1.48774197e-04 1.25520315e-03 2.60331063e-03
      -3.23858578e-03 -1.78940711e-03 3.91420879e-04 2.57581269e-05
      1.15120586e-03 6.36594952e-04 -2.67336873e-04 -1.05171860e-03
      -1.53018907e-03 3.35280388e-03 -1.01007300e-03 2.93943100e-03
      2.11354042e-03 1.43673026e-03 1.99789734e-04 8.44851951e-04
      -1.67092716e-03 2.59099575e-03 8.66649032e-04 -1.56549085e-03
      -8.37335770e-04 4.45779006e-04 -1.28788874e-03 -3.21762636e-05
      -2.73310393e-03 -2.17920588e-03 -3.91086680e-04 -1.33470935e-03
      1.36773684e-03 1.12867157e-03 9.23621177e-04 -3.27686267e-03
      3.10641970e-03 3.36408149e-03 1.04711515e-04 6.68802415e-04
      1.43766380e-03 -1.52022729e-03 -1.69202616e-03 9.44673433e-04
      5.12790750e-04 2.85719335e-03 -5.51243254e-04 -2.97401077e-03</_></support_vectors>
  <decision_functions>
    <_>
      <sv_count>1</sv_count>
      <rho>9.9724983184927951e-01</rho>
      <alpha>
        1.</alpha>
      <index>
        0</index></_></decision_functions></my_svm>
</opencv_storage>
